digraph Tree {
node [shape=box, style="filled, rounded", color="black", fontname="helvetica"] ;
graph [ranksep=equally, splines=polyline] ;
edge [fontname="helvetica"] ;
0 [label="tenure_group <= 1.5\ngini = 0.401\nsamples = 3133\nvalue = [3560, 1370]\nclass = Yes", fillcolor="#efb185"] ;
1 [label="tenure_group <= 0.5\ngini = 0.493\nsamples = 1424\nvalue = [1254, 985]\nclass = Yes", fillcolor="#f9e4d5"] ;
0 -> 1 [labeldistance=2.5, labelangle=45, headlabel="True"] ;
2 [label="MonthlyCharges <= 66.15\ngini = 0.5\nsamples = 975\nvalue = [769, 751]\nclass = Yes", fillcolor="#fefcfa"] ;
1 -> 2 ;
3 [label="PhoneService <= 0.5\ngini = 0.443\nsamples = 532\nvalue = [549, 271]\nclass = Yes", fillcolor="#f2bf9b"] ;
2 -> 3 ;
4 [label="gini = 0.499\nsamples = 100\nvalue = [75, 80]\nclass = No", fillcolor="#f3f9fd"] ;
3 -> 4 ;
5 [label="gini = 0.409\nsamples = 432\nvalue = [474, 191]\nclass = Yes", fillcolor="#efb489"] ;
3 -> 5 ;
6 [label="MultipleLines <= 0.5\ngini = 0.431\nsamples = 443\nvalue = [220, 480]\nclass = No", fillcolor="#94caf1"] ;
2 -> 6 ;
7 [label="gini = 0.459\nsamples = 265\nvalue = [151, 272]\nclass = No", fillcolor="#a7d3f3"] ;
6 -> 7 ;
8 [label="gini = 0.374\nsamples = 178\nvalue = [69, 208]\nclass = No", fillcolor="#7bbeee"] ;
6 -> 8 ;
9 [label="PaperlessBilling <= 0.5\ngini = 0.439\nsamples = 449\nvalue = [485, 234]\nclass = Yes", fillcolor="#f2be99"] ;
1 -> 9 ;
10 [label="TotalCharges <= 980.35\ngini = 0.275\nsamples = 170\nvalue = [243, 48]\nclass = Yes", fillcolor="#ea9a60"] ;
9 -> 10 ;
11 [label="gini = 0.11\nsamples = 110\nvalue = [177, 11]\nclass = Yes", fillcolor="#e78945"] ;
10 -> 11 ;
12 [label="gini = 0.46\nsamples = 60\nvalue = [66, 37]\nclass = Yes", fillcolor="#f4c8a8"] ;
10 -> 12 ;
13 [label="TotalCharges <= 824.85\ngini = 0.491\nsamples = 279\nvalue = [242, 186]\nclass = Yes", fillcolor="#f9e2d1"] ;
9 -> 13 ;
14 [label="gini = 0.343\nsamples = 51\nvalue = [64, 18]\nclass = Yes", fillcolor="#eca471"] ;
13 -> 14 ;
15 [label="gini = 0.5\nsamples = 228\nvalue = [178, 168]\nclass = Yes", fillcolor="#fef8f4"] ;
13 -> 15 ;
16 [label="MonthlyCharges <= 74.875\ngini = 0.245\nsamples = 1709\nvalue = [2306, 385]\nclass = Yes", fillcolor="#e9965a"] ;
0 -> 16 [labeldistance=2.5, labelangle=-45, headlabel="False"] ;
17 [label="OnlineBackup <= 0.5\ngini = 0.114\nsamples = 779\nvalue = [1158, 75]\nclass = Yes", fillcolor="#e78946"] ;
16 -> 17 ;
18 [label="MonthlyCharges <= 44.7\ngini = 0.092\nsamples = 564\nvalue = [850, 43]\nclass = Yes", fillcolor="#e68743"] ;
17 -> 18 ;
19 [label="gini = 0.038\nsamples = 397\nvalue = [614, 12]\nclass = Yes", fillcolor="#e6833d"] ;
18 -> 19 ;
20 [label="gini = 0.205\nsamples = 167\nvalue = [236, 31]\nclass = Yes", fillcolor="#e89253"] ;
18 -> 20 ;
21 [label="PaymentMethod <= 0.5\ngini = 0.171\nsamples = 215\nvalue = [308, 32]\nclass = Yes", fillcolor="#e88e4e"] ;
17 -> 21 ;
22 [label="gini = 0.069\nsamples = 72\nvalue = [107, 4]\nclass = Yes", fillcolor="#e68640"] ;
21 -> 22 ;
23 [label="gini = 0.215\nsamples = 143\nvalue = [201, 28]\nclass = Yes", fillcolor="#e99355"] ;
21 -> 23 ;
24 [label="tenure_group <= 2.5\ngini = 0.335\nsamples = 930\nvalue = [1148, 310]\nclass = Yes", fillcolor="#eca36e"] ;
16 -> 24 ;
25 [label="PaymentMethod <= 1.5\ngini = 0.458\nsamples = 347\nvalue = [342, 188]\nclass = Yes", fillcolor="#f3c6a6"] ;
24 -> 25 ;
26 [label="gini = 0.367\nsamples = 162\nvalue = [191, 61]\nclass = Yes", fillcolor="#eda978"] ;
25 -> 26 ;
27 [label="gini = 0.496\nsamples = 185\nvalue = [151, 127]\nclass = Yes", fillcolor="#fbebe0"] ;
25 -> 27 ;
28 [label="tenure <= 61.5\ngini = 0.228\nsamples = 583\nvalue = [806, 122]\nclass = Yes", fillcolor="#e99457"] ;
24 -> 28 ;
29 [label="gini = 0.323\nsamples = 226\nvalue = [296, 75]\nclass = Yes", fillcolor="#eca16b"] ;
28 -> 29 ;
30 [label="gini = 0.155\nsamples = 357\nvalue = [510, 47]\nclass = Yes", fillcolor="#e78d4b"] ;
28 -> 30 ;
{rank=same ; 0} ;
{rank=same ; 1; 16} ;
{rank=same ; 2; 9; 17; 24} ;
{rank=same ; 3; 6; 10; 13; 18; 21; 25; 28} ;
{rank=same ; 4; 5; 7; 8; 11; 12; 14; 15; 19; 20; 22; 23; 26; 27; 29; 30} ;
}